0.6323592462 0.0975404050 
0.6323592462 0.0975404050 
-1.3676407538 0.0975404050 
-1.3676407538 0.0975404050 
-1.3676407538 0.0975404050 
-1.3676407538 0.0975404050 
-1.3676407538 0.0975404050 
-1.3676407538 0.0975404050 
-1.3676407538 0.0975404050 
-1.3676407538 0.0975404050 
-1.3676407538 0.0975404050 
-1.3676407538 0.0975404050 
-1.3676407538 0.0975404050 
-1.3676407538 0.0975404050 
-1.3676407538 0.0975404050 
-1.3676407538 0.0975404050 
-1.3676407538 0.0975404050 
-1.3676407538 0.0975404050 
-1.3676407538 0.0975404050 
-1.3676407538 0.0975404050 
-1.3676407538 0.0975404050 
-1.3676407538 0.0975404050 
-1.3676407538 0.0975404050 
-1.3676407538 0.0975404050 
-1.3676407538 0.0975404050 
-1.3676407538 0.0975404050 
-1.3676407538 0.0975404050 
-1.3676407538 0.0975404050 
-1.3676407538 0.0975404050 
-1.3676407538 0.0975404050 
-1.3676407538 0.0975404050 
-1.3676407538 0.0975404050 
-1.3676407538 0.0975404050 
-1.3676407538 0.0975404050 
-1.3676407538 0.0975404050 
-1.3676407538 0.0975404050 
-1.3676407538 0.0975404050 
-1.3676407538 0.0975404050 
-1.3676407538 0.0975404050 
-1.3676407538 0.0975404050 
-1.3676407538 0.0975404050 
-1.3676407538 0.0975404050 
-1.3676407538 0.0975404050 
-1.3676407538 0.0975404050 
-1.3676407538 0.0975404050 
-1.3676407538 0.0975404050 
-1.3676407538 0.0975404050 
-1.3676407538 0.0975404050 
-1.3676407538 0.0975404050 
-1.3676407538 0.0975404050 
-1.3676407538 0.0975404050 
